digraph Tree {
node [shape=box, style="filled, rounded", color="black", fontname=helvetica] ;
edge [fontname=helvetica] ;
0 [label="petal width (cm) <= 0.8\ngini = 0.66\nsamples = 99\nvalue = [47, 62, 41]\nclass = versicolor", fillcolor="#e2fbed"] ;
1 [label="gini = 0.0\nsamples = 33\nvalue = [47, 0, 0]\nclass = setosa", fillcolor="#e58139"] ;
0 -> 1 [labeldistance=2.5, labelangle=45, headlabel="True"] ;
2 [label="petal width (cm) <= 1.7\ngini = 0.48\nsamples = 66\nvalue = [0, 62, 41]\nclass = versicolor", fillcolor="#bcf6d4"] ;
0 -> 2 [labeldistance=2.5, labelangle=-45, headlabel="False"] ;
3 [label="petal length (cm) <= 4.95\ngini = 0.12\nsamples = 38\nvalue = [0, 61, 4]\nclass = versicolor", fillcolor="#46e789"] ;
2 -> 3 ;
4 [label="gini = 0.0\nsamples = 34\nvalue = [0, 58, 0]\nclass = versicolor", fillcolor="#39e581"] ;
3 -> 4 ;
5 [label="petal length (cm) <= 5.45\ngini = 0.49\nsamples = 4\nvalue = [0, 3, 4]\nclass = virginica", fillcolor="#e0cef8"] ;
3 -> 5 ;
6 [label="petal width (cm) <= 1.55\ngini = 0.48\nsamples = 3\nvalue = [0, 3, 2]\nclass = versicolor", fillcolor="#bdf6d5"] ;
5 -> 6 ;
7 [label="gini = 0.0\nsamples = 2\nvalue = [0, 0, 2]\nclass = virginica", fillcolor="#8139e5"] ;
6 -> 7 ;
8 [label="gini = 0.0\nsamples = 1\nvalue = [0, 3, 0]\nclass = versicolor", fillcolor="#39e581"] ;
6 -> 8 ;
9 [label="gini = 0.0\nsamples = 1\nvalue = [0, 0, 2]\nclass = virginica", fillcolor="#8139e5"] ;
5 -> 9 ;
10 [label="petal length (cm) <= 4.85\ngini = 0.05\nsamples = 28\nvalue = [0, 1, 37]\nclass = virginica", fillcolor="#843ee6"] ;
2 -> 10 ;
11 [label="sepal length (cm) <= 5.95\ngini = 0.44\nsamples = 3\nvalue = [0, 1, 2]\nclass = virginica", fillcolor="#c09cf2"] ;
10 -> 11 ;
12 [label="gini = 0.0\nsamples = 1\nvalue = [0, 1, 0]\nclass = versicolor", fillcolor="#39e581"] ;
11 -> 12 ;
13 [label="gini = 0.0\nsamples = 2\nvalue = [0, 0, 2]\nclass = virginica", fillcolor="#8139e5"] ;
11 -> 13 ;
14 [label="gini = 0.0\nsamples = 25\nvalue = [0, 0, 35]\nclass = virginica", fillcolor="#8139e5"] ;
10 -> 14 ;
}